<?xml version="1.0"?>
<opencv_storage>
<cascade>
  <stageType>BOOST</stageType>
  <featureType>HAAR</featureType>
  <height>50</height>
  <width>50</width>
  <stageParams>
    <boostType>GAB</boostType>
    <minHitRate>9.9500000476837158e-01</minHitRate>
    <maxFalseAlarm>5.0000000000000000e-01</maxFalseAlarm>
    <weightTrimRate>9.4999999999999996e-01</weightTrimRate>
    <maxDepth>1</maxDepth>
    <maxWeakCount>100</maxWeakCount></stageParams>
  <featureParams>
    <maxCatCount>0</maxCatCount>
    <featSize>1</featSize>
    <mode>BASIC</mode></featureParams>
  <stageNum>7</stageNum>
  <stages>
    <!-- stage 0 -->
    <_>
      <maxWeakCount>1</maxWeakCount>
      <stageThreshold>9.9004977941513062e-01</stageThreshold>
      <weakClassifiers>
        <_>
          <internalNodes>
            0 -1 12 -3.0035918578505516e-02</internalNodes>
          <leafValues>
            9.9004977941513062e-01 -1.</leafValues></_></weakClassifiers></_>
    <!-- stage 1 -->
    <_>
      <maxWeakCount>3</maxWeakCount>
      <stageThreshold>-1.6223678588867188e+00</stageThreshold>
      <weakClassifiers>
        <_>
          <internalNodes>
            0 -1 7 1.3997353613376617e-02</internalNodes>
          <leafValues>
            -9.6435844898223877e-01 3.9830508828163147e-01</leafValues></_>
        <_>
          <internalNodes>
            0 -1 2 -2.7132108807563782e-02</internalNodes>
          <leafValues>
            2.0918852090835571e-01 -9.7454714775085449e-01</leafValues></_>
        <_>
          <internalNodes>
            0 -1 10 3.2724559307098389e-02</internalNodes>
          <leafValues>
            -9.9345934391021729e-01 3.1653773784637451e-01</leafValues></_></weakClassifiers></_>
    <!-- stage 2 -->
    <_>
      <maxWeakCount>2</maxWeakCount>
      <stageThreshold>-1.1646167039871216e+00</stageThreshold>
      <weakClassifiers>
        <_>
          <internalNodes>
            0 -1 0 -1.1772136390209198e-01</internalNodes>
          <leafValues>
            -2.1042084693908691e-01 -9.9647265672683716e-01</leafValues></_>
        <_>
          <internalNodes>
            0 -1 3 -2.2012870758771896e-02</internalNodes>
          <leafValues>
            2.7041292190551758e-01 -9.5419591665267944e-01</leafValues></_></weakClassifiers></_>
    <!-- stage 3 -->
    <_>
      <maxWeakCount>3</maxWeakCount>
      <stageThreshold>-1.3968513011932373e+00</stageThreshold>
      <weakClassifiers>
        <_>
          <internalNodes>
            0 -1 9 2.7821995317935944e-02</internalNodes>
          <leafValues>
            -8.9372903108596802e-01 6.0360360145568848e-01</leafValues></_>
        <_>
          <internalNodes>
            0 -1 16 1.7402984201908112e-02</internalNodes>
          <leafValues>
            -8.9457374811172485e-01 3.9688038825988770e-01</leafValues></_>
        <_>
          <internalNodes>
            0 -1 14 3.7107616662979126e-02</internalNodes>
          <leafValues>
            -9.0000253915786743e-01 4.2498955130577087e-01</leafValues></_></weakClassifiers></_>
    <!-- stage 4 -->
    <_>
      <maxWeakCount>3</maxWeakCount>
      <stageThreshold>-1.4119224548339844e+00</stageThreshold>
      <weakClassifiers>
        <_>
          <internalNodes>
            0 -1 15 5.8854307280853391e-04</internalNodes>
          <leafValues>
            -9.4004797935485840e-01 1.0759493708610535e-01</leafValues></_>
        <_>
          <internalNodes>
            0 -1 11 -4.3204143643379211e-02</internalNodes>
          <leafValues>
            4.3122422695159912e-01 -8.5365647077560425e-01</leafValues></_>
        <_>
          <internalNodes>
            0 -1 1 -2.2545404732227325e-02</internalNodes>
          <leafValues>
            3.8178190588951111e-01 -9.6539515256881714e-01</leafValues></_></weakClassifiers></_>
    <!-- stage 5 -->
    <_>
      <maxWeakCount>3</maxWeakCount>
      <stageThreshold>-1.3301101922988892e+00</stageThreshold>
      <weakClassifiers>
        <_>
          <internalNodes>
            0 -1 5 -4.3273814022541046e-02</internalNodes>
          <leafValues>
            5.1578944921493530e-01 -8.8333332538604736e-01</leafValues></_>
        <_>
          <internalNodes>
            0 -1 11 -4.3162573128938675e-02</internalNodes>
          <leafValues>
            4.7569477558135986e-01 -8.4874546527862549e-01</leafValues></_>
        <_>
          <internalNodes>
            0 -1 8 -8.5923217236995697e-02</internalNodes>
          <leafValues>
            4.5365807414054871e-01 -9.2247158288955688e-01</leafValues></_></weakClassifiers></_>
    <!-- stage 6 -->
    <_>
      <maxWeakCount>3</maxWeakCount>
      <stageThreshold>-1.4752458333969116e+00</stageThreshold>
      <weakClassifiers>
        <_>
          <internalNodes>
            0 -1 6 -2.0911166444420815e-02</internalNodes>
          <leafValues>
            4.5945945382118225e-01 -8.6528497934341431e-01</leafValues></_>
        <_>
          <internalNodes>
            0 -1 13 5.2004324970766902e-06</internalNodes>
          <leafValues>
            2.7493375539779663e-01 -9.3910866975784302e-01</leafValues></_>
        <_>
          <internalNodes>
            0 -1 4 5.4442307373392396e-06</internalNodes>
          <leafValues>
            3.2914781570434570e-01 -9.9518513679504395e-01</leafValues></_></weakClassifiers></_></stages>
  <features>
    <_>
      <rects>
        <_>
          0 0 34 41 -1.</_>
        <_>
          17 0 17 41 2.</_></rects>
      <tilted>0</tilted></_>
    <_>
      <rects>
        <_>
          0 1 22 23 -1.</_>
        <_>
          11 1 11 23 2.</_></rects>
      <tilted>0</tilted></_>
    <_>
      <rects>
        <_>
          0 20 16 15 -1.</_>
        <_>
          8 20 8 15 2.</_></rects>
      <tilted>0</tilted></_>
    <_>
      <rects>
        <_>
          0 22 14 11 -1.</_>
        <_>
          7 22 7 11 2.</_></rects>
      <tilted>0</tilted></_>
    <_>
      <rects>
        <_>
          4 40 6 9 -1.</_>
        <_>
          4 43 6 3 3.</_></rects>
      <tilted>0</tilted></_>
    <_>
      <rects>
        <_>
          6 25 18 14 -1.</_>
        <_>
          6 25 9 7 2.</_>
        <_>
          15 32 9 7 2.</_></rects>
      <tilted>0</tilted></_>
    <_>
      <rects>
        <_>
          9 23 8 16 -1.</_>
        <_>
          9 23 4 8 2.</_>
        <_>
          13 31 4 8 2.</_></rects>
      <tilted>0</tilted></_>
    <_>
      <rects>
        <_>
          10 20 2 28 -1.</_>
        <_>
          10 34 2 14 2.</_></rects>
      <tilted>0</tilted></_>
    <_>
      <rects>
        <_>
          14 1 36 47 -1.</_>
        <_>
          26 1 12 47 3.</_></rects>
      <tilted>0</tilted></_>
    <_>
      <rects>
        <_>
          14 4 17 9 -1.</_>
        <_>
          14 7 17 3 3.</_></rects>
      <tilted>0</tilted></_>
    <_>
      <rects>
        <_>
          17 13 8 24 -1.</_>
        <_>
          17 21 8 8 3.</_></rects>
      <tilted>0</tilted></_>
    <_>
      <rects>
        <_>
          18 24 18 4 -1.</_>
        <_>
          24 24 6 4 3.</_></rects>
      <tilted>0</tilted></_>
    <_>
      <rects>
        <_>
          19 23 15 4 -1.</_>
        <_>
          24 23 5 4 3.</_></rects>
      <tilted>0</tilted></_>
    <_>
      <rects>
        <_>
          20 22 1 6 -1.</_>
        <_>
          20 24 1 2 3.</_></rects>
      <tilted>0</tilted></_>
    <_>
      <rects>
        <_>
          21 34 21 16 -1.</_>
        <_>
          21 42 21 8 2.</_></rects>
      <tilted>0</tilted></_>
    <_>
      <rects>
        <_>
          22 25 3 1 -1.</_>
        <_>
          23 25 1 1 3.</_></rects>
      <tilted>0</tilted></_>
    <_>
      <rects>
        <_>
          42 21 5 28 -1.</_>
        <_>
          42 35 5 14 2.</_></rects>
      <tilted>0</tilted></_></features></cascade>
</opencv_storage>
